{"Layers":[20,40,40,1],"LearningRate":0.01,"State":{"Weights":[[[0.16847907575181878,0.013543858819603332,11.360147292688275,-1.513475498516681,6.411373190603004,-4.40428232758419,2.423606222079067,1.0274322076816533,-13.473933755495889,6.824325667921425,3.235827106250349,-8.08929418010569,9.378673874717137,0.5821614929882554,0.8793299429695695,-3.937309849193009,-0.683567420475137,1.4961617867962844,-0.6729419026133309,0.17553765934170468],[-1.025967082494289,-2.1277601849861725,0.7103185715333872,-0.24397873238158935,-1.7575345482038713,-1.1387448818557504,-0.4233919690167231,-0.8640339451479322,-2.159924348572406,-1.113349768931224,-0.3849756739923548,-1.5930503909027147,-0.8378279178949396,1.398619363186863,0.8754903637605567,1.4779538332914188,0.34003303060967743,0.4383159300022344,0.025210302835199937,-0.2595847107957748],[-0.5501266536526108,-1.762262178246628,5.035354139055241,1.229723214684755,5.955206200755956,-1.0823885886094022,-0.7291165781766434,1.0898083997017718,-3.846020950534706,-12.257559393610789,11.955443727921931,10.597308913713775,8.857768240054284,1.6563808201547574,0.15033166637294107,-5.903549582270042,-4.818046108057857,1.4699134182970663,-2.0144667826656626,0.041414607430472636],[4.355471227721804,1.8647528253856713,0.0347604760084718,-0.9883910250090477,6.35046461803442,2.540724935140037,3.174670835768806,-1.6647123795660212,2.0878345519648076,7.658364838238077,-7.641434904856526,-3.0847482837851463,-6.866922703326408,-5.392926737530943,-1.4523775592496406,-6.79291226646915,0.08235874747509586,-2.7359261054522213,3.009649682192929,0.11739522030119139],[-6.421892747539931,-0.37460640642213605,2.511809668689029,-0.9742065948469619,7.2053776039266415,0.9954529700985618,8.226829044010193,-3.319518802941484,0.5269908643286888,-0.323179773709311,-4.123763972360559,6.179941889492169,4.17447167449121,1.8442959656731521,0.7330346696393591,-2.742598198991869,0.45727756333832464,-1.2797356916513951,-5.6820120529760505,0.4955575024663608],[-0.048781915436572273,-0.7231156270705658,0.24552196253984937,-1.120615573924347,-0.8886085461053697,-0.9906017404807617,0.0160735067689126,-0.22743884497317976,-1.3463444311759074,-1.6778349100440508,-0.22904072525972308,0.3728985270318977,-1.4581128310096778,0.8018538525922976,-1.4977079686827504,-0.09780212360080147,-0.6029396531516622,0.06911148080355696,-0.5718310127892096,-0.0868343633156052],[-1.2814461364157943,0.19498750111658358,-1.6632312663786932,-0.6615345010881576,0.1390817258865832,3.3477079086219352,5.206793380395106,-2.052099862451524,-1.0813732268720337,-0.9700812597172694,0.16190501221168924,-1.798743827804259,1.7845103546390446,-1.0969888890358406,-1.297406773656339,-3.9075600084056306,-0.9234963790982647,0.10874847766126729,-1.4874442720887535,0.18227413590587038],[-1.4667985523398561,-3.1288114584968687,-1.0395928859646115,-7.784270883477488,-1.7681113820014156,8.587467931265873,7.528541060113169,0.1004342311150755,-6.80733906389004,4.904620671097361,1.641554467378315,15.654346506854797,2.1318921983355485,4.532111839919869,-0.18378739827310228,-7.112693323767105,-9.311619271764016,-1.9819960701330646,0.9151662489357526,-0.2590941448135875],[-0.016855124331297457,-1.1894975143763844,0.0684884388170298,-1.0108018405886423,-0.6104382032488074,-0.2776346574653947,-0.8339452433898912,-0.2627336721427077,-0.5761959063218768,-0.704190749375892,0.08924251020006171,-0.6679538748149075,-1.0236182438513812,-0.9017432931989894,-0.5926796150305489,-0.918621943469381,-0.9062446731314688,-0.27130472960497654,-0.5370962737915128,0.6722895433593391],[-5.611164245556598,-11.90339785435041,0.6031848548121657,0.7259388122231499,-2.1760848490587272,7.033869777277239,4.48608511192148,1.0491272046672198,-11.592014796694821,-5.72179949029649,6.741701437521917,15.58305156399743,-3.708950537500924,4.55382813961893,1.433529050045385,-9.182996267563357,7.793363761387372,5.705176103378446,9.162837816958719,0.21134218796573745],[-0.7563362876107719,-0.45232420750139457,-0.43666043471649674,-0.2558552549699731,-0.753141581258924,-0.1617739195956095,0.684110174636576,-0.4482387339510898,-0.6875254733064228,-0.3588067952519124,-0.2773741320409071,-0.9542910836954348,-0.24205564098309115,-0.9110392166716602,0.8432101656099711,-0.18354753250046377,-1.4415017337562401,0.36438049171721854,-0.9340609742852832,-0.46187249755166626],[10.123479327013923,-6.654499867745445,0.7267906277619668,-5.66956538804718,11.257038130345059,-18.37034541306249,-7.866024335058256,0.4838756443648941,-10.289960872338254,1.1744319258893765,-0.7879647101276678,10.474865478432019,0.792920681297808,3.9759744628551665,-6.35950335569035,-3.5584442069119184,-1.1568778576484968,3.705553438837098,-1.3507091812706247,0.47971850361578544],[0.3002963332488186,-0.5744245016017269,0.6625899164536705,-1.2446886010064093,-1.3945134929964162,-0.5310540720811113,0.9267094934866583,1.4647402068886826,-0.1577772983681003,0.6373354178773623,1.1528954451589075,0.31500598023554705,-0.6098920851633873,0.43275758570935147,0.2809960430708637,-1.568583927380544,-0.58422527641439,-0.7105648707781963,-0.1815002509922671,-0.307308601386548],[-0.9185172258098044,-0.9115392303476482,-0.020918877640167918,-1.1790048628355725,-0.34414338199632843,-1.2329098536966583,-1.062077565237621,-0.7076487096181364,0.18288889683692033,0.019834435473165095,0.16824614089752743,-0.47325329926527104,-1.5888777140416854,0.03612351687910577,-0.042542209987871886,0.10625953589616838,-0.37736288773726107,-1.0723851638320343,0.24057811723595496,-0.6139823577979394],[-0.0354347956930567,-1.0565320600974073,-1.0920128209964202,-0.6224429995311502,-0.788015445886555,-0.8975903692531265,0.40401891470381934,-1.444394550745206,0.17730809926434798,-0.17328242822934053,-0.9535305578221795,-0.5807419843302244,-0.951082128059365,0.14302774855052203,-0.03425502009315317,-0.5355020879792424,-1.4494356782922966,-0.29232771292458226,-0.19195318538926334,-0.5363294117616068],[0.33513113056961735,-0.8358617943042389,0.0012721787272115868,-1.4835992716734174,-2.343422743731728,-0.6471377396880654,-0.4850129319100079,-1.7425064825048238,0.6210612368126225,-0.3819050675092273,-0.21105718445367622,0.4289311110881458,-0.4720939916782221,-0.36658598985334145,-0.28543438261746157,-0.5763081568686035,-0.7010222241048141,0.5382731963383967,0.6462082053858176,-0.626796878334067],[0.46404141160896256,-0.21972936378067065,0.2856250937821498,0.3776569570018607,-1.7819830604995508,-0.13884435053159316,-0.1236540598183931,-1.6258238473932536,0.14831312205921376,-0.5991765535000376,-0.6049331468075352,-0.7651898232372573,-0.9111953154594792,0.9157941967760888,0.45980563512824063,-0.045934170004951994,-0.2508684784324109,0.6002138507797241,-1.2111359548649085,-1.3415173433397458],[-0.07548990628250918,-1.0859159791083899,0.06832439732822088,0.3589765884035663,-0.6473419831521002,-1.0779076552166933,-0.18394793859674088,-0.5833934914582588,-0.5957527534129581,-0.5433995262899559,-1.1111847747458068,-0.9302475808112818,-1.6562426660319,-0.13867396673493573,0.833968055585159,-0.8650471778335208,0.18526491997292135,0.1904389383169163,-0.2784872816792547,0.46300352296309855],[0.16206170779524182,-0.8842612637942999,-0.8155561747857086,-0.18727055234119006,-1.4978687527052756,-0.2750461149758123,-0.7636346870255419,-1.2883690859213963,-0.3573778902964991,-1.194007230290133,-0.8194578548945641,-0.7901894965731067,-1.6307499827519418,-0.0946344671488439,-0.5493173889748382,0.0994572479916263,-0.5345379238876974,-0.05048434207882708,0.2966675919833544,-0.20849997771003814],[-1.4009107546586945,-1.593131563072441,-0.01060373698487939,-0.3140995713560314,-1.4269534190732427,-0.8858783586181147,0.5936363604864533,-0.4621180779206594,-1.8880519456643943,-0.7601314937155961,0.04471001774425747,-1.5229324610667838,0.041518958959425784,-0.8503476396686904,-0.7321131101485989,0.4331745272581226,1.0870311403229949,-0.04356723209398249,-1.147898682281951,-1.0626064255605796],[-4.5829458336204745,-3.7239524123731123,4.068396726737237,-0.9573151410239227,4.78295307363922,1.0071882924853177,3.849258608299348,0.5152068616036356,-7.115932516858796,0.2129218058649999,0.7458981648199512,-6.863835545413022,-4.668295990380948,1.7229763035537646,-0.07619195935533087,-0.29671859786267984,1.8200543543967442,-0.10448365675702961,-2.2523195343300464,-0.02787310029169495],[-4.023329353509394,0.5248414375642547,1.2764683082750183,0.6912586146173504,-5.3985447345493425,-0.6659008307722449,-2.2513345297515306,-0.6025008778911815,-2.7114950021709854,-3.2941749992961986,-1.1598448626899465,-1.6648621154556016,0.24119599008820214,2.3689475630529837,0.6491317820903101,-0.8874065500210646,-0.9402116429367156,-1.8060227581915735,1.7826034443439984,-0.36638744625681013],[-2.4350490514835212,0.4030480521751285,3.2231727740799845,1.378790720847892,-6.747378106182994,-5.829315241772397,-6.957638125320454,-0.4592071691359526,2.06836557502043,-4.45358265604497,1.2284260237050904,-0.5109363642971643,-8.228664202580484,2.561201019530054,0.2544882281943456,-0.7544420425623983,3.2407158078063563,-2.1222943459627683,6.921932240714111,0.3847475589558037],[-0.7346133482848913,-0.8691985743984185,-0.024037113135163313,-1.2800772144992978,-0.3468519214230085,-0.2227886119372809,1.3746958222239805,-0.4806135367537927,-0.1651391915708234,0.49831198220110795,-0.8977819588514727,-1.4040757506431172,-0.042735726586599625,-0.46618481067474177,-0.841107883015214,-0.8920658146562248,0.8442214805711407,0.23845191783510927,-0.259317103839897,-0.14921496292336894],[0.4003208760768399,0.18649835795034864,-0.1786388213180883,-0.27318577397894006,-1.33032301534653,-1.1256623124968785,0.06633492540757324,-0.13479147279731948,-1.0539515178857404,-0.6520935151231844,-0.2788799362352119,0.8981331147541746,0.1556564804929503,-0.3146102778285004,-0.3315541580920592,-0.7156251994439664,-1.0136918458359778,0.8818097916444667,0.46397977099848525,-0.7874573016489],[-0.47591051119098704,-1.1021244664068515,-0.2932322785863787,-0.5653929629224007,1.3208488457209648,-0.680801978314862,-1.2761421573195368,0.8057494774743531,0.6528708699726109,-0.012990810501357093,-0.7844084317037581,-0.9438871207593496,0.6925648162346933,0.6291541022604278,-1.0225288264654648,-0.6899427787808786,-0.6662102294484545,1.0264125388366463,1.6593077544662862,0.06472724458521134],[-1.4084330323167717,3.5046895709294277,-0.5296589599454065,-1.5595291453871445,-0.13894744284916047,2.279355339798471,-4.913862809796976,-0.7614430240528589,-4.999708089023492,2.071354429332623,4.298060812526922,-5.058757023888518,0.9778840729029037,-2.29151976107317,3.518413317191287,-7.142845871523253,-7.040008280215422,-3.786626363269334,4.53668185361525,0.14987595164940057],[3.5729365540738134,-3.305674625729534,1.6438120356614887,-0.8359462952477789,4.943044759377196,-2.786477518140949,13.179943372345218,0.6785595854899262,-1.7351739634765069,-5.354544862099388,5.7392871082506005,-7.831667110224238,-6.736794679979345,-3.3668189669006936,-3.3039686875976115,-5.023626873663004,-1.290371885846715,1.1892585377244551,11.2052340793249,-0.010641769210900523],[-9.367912184607121,3.5067151965282317,-0.9866545777648239,-0.9536288362395333,-9.880022843133919,4.376230726558529,9.032104413119098,-6.40069667542442,-5.221640544860126,-9.058110346580378,14.310043102869608,-1.3828836338684813,-10.533322392872417,-2.2656089062205234,4.294286651535486,6.394196872375146,2.8277156094155833,-2.432752054724962,-1.017333382744103,0.15474837587599155],[6.089587936856278,-0.32334137089827325,-6.709395430514967,-0.028228504710407325,9.101988587423405,4.147753519793019,3.2408408441552425,3.7154437301943357,2.5520073463450266,8.223067321850289,4.663378268170334,0.7267907773897223,3.869664252627759,-3.1590414104649365,-1.1377215889003776,-1.2655501599235364,0.157270452035099,1.210454614693632,-1.5384979248306179,-0.4011525567055502],[0.7172389910838457,15.252424161231598,1.8081812716930135,-5.690778244598539,-7.297055970887131,3.3441555324951167,-3.3287377521564547,1.3605838052115846,-2.8502585378139877,3.5084701379874046,-0.27561204091476743,-5.420134705486131,2.9639898948965264,-4.498840827569329,0.722469021985474,7.434237998143397,-1.7850474240323144,-12.986577268714896,1.9146484715318983,0.3508214314552652],[-20.118309183067026,-1.467239363133253,-2.076256040891837,1.2063993944236688,7.755367997451749,10.119330530725218,-2.1779892989137903,2.4432135160783974,1.3959973457754966,-30.127353304133585,11.285865911285184,-13.662444944314467,-3.3167214998521874,-1.9915421312168353,-1.8627029349142694,-13.082566743562976,5.215484160918343,2.0656487359371662,-0.9778547632321998,-0.2450349864936591],[0.19966641874468205,-1.0946979245498105,0.009658230575878406,-1.1301677455937469,-0.9636532089168045,0.2927838804554877,0.2204330295829909,-0.9582202103555492,-0.40812298317001167,-0.5236640829134988,0.3929374916890942,-1.1821178071936764,-1.357915281448584,0.5044952500758424,-0.4729443719569964,-0.6548449817836625,-0.2538890293644168,0.44936033704749134,-0.06252779522288597,-0.4241114226751196],[13.279050861495271,1.5335323216545145,14.485077383361496,2.3473018173592934,0.4768041807319046,-8.070169260266946,6.894490668465284,-2.4900023805406795,8.33128051747372,2.915251210580809,-3.337069864681374,14.464319948040709,-1.900768291400337,2.4347396351590658,-0.05016282942367923,-6.763674575469341,-1.302806813410391,8.934917477653643,-1.3950012033142154,-0.1745791745246338],[-9.2090757858077,1.5536941663774932,4.117646138692024,1.367250887978665,-0.05414883793779057,5.297873163105697,5.499538251070095,0.7805940776543686,0.143098215149873,-11.828795698853812,-7.225316661208565,-0.48883265717095553,-3.6539936938842357,1.177429650192326,0.5110616808840025,1.3810358588217408,-1.8404958935779618,-0.4181735333278006,-4.131513092217317,-0.10464315944597807],[-0.8401815307002177,-0.7117009993088863,-0.9623856938144968,-0.5344679020821517,-1.4159111644795916,-1.1018800653344487,-0.40512423018447674,-0.20521448790342176,-1.0252531223746573,-0.24787420008059677,-0.8869123853052425,0.3638943969727389,-0.5622861492689198,0.1684979274455121,-0.5125689814968245,-0.17284463081809698,-0.4249374341832914,-0.023150424635431332,-0.7323378667421643,-0.797899288708995],[-1.4105018707923718,-1.1975263475661277,-0.5799790322750108,-0.5861559283503315,0.13169227646588896,0.25040848811143923,0.4947876965051853,-1.0478904816835994,-0.07752292506802616,-1.3204968000398007,-0.5899364929478731,0.5769986314188118,-0.4625686188919755,0.02855398765469873,-1.0035536745125384,-1.6473539667317478,-0.008266419372675127,0.6811972293237445,-1.1871728287790424,-1.0450783940529398],[-5.202437791354196,0.8237111002191039,-7.84960731155993,-0.4069062257843062,-1.0885419210157452,-5.453070548170117,11.113903059487045,-1.1683484129473731,4.990763421039374,-7.415376527245756,-4.105239187861531,3.7286597600746747,-0.17302104498362306,2.639743683321221,1.837985421486583,7.060440628876643,-2.304692742511486,7.100904030483589,7.455814417859952,-0.08462439498951338],[-1.19180527088158,-1.2588937923039814,-1.4905645346537886,1.0413554641482101,2.5764739939149695,-2.157942136534634,-6.442701235872186,-0.6246493227518547,-3.614990289800332,1.0465004949761731,-1.5389879831077682,-4.611610460363929,-3.6085481631714993,0.08351064698333326,-0.8307991559060314,1.1824011064604651,-0.9210452929665444,-2.5037711370158777,-2.260761025946535,-0.15617487327710136],[1.0852043840499843,-3.1451409515631017,0.007030550241746615,-2.1283154630152965,1.0330938714185212,-3.200088106907348,3.3361106339464004,1.01284111702997,-0.25616209679608015,-0.406786318093084,1.5856304590304204,0.12668928540593524,1.0105396280239964,-1.25249711191488,0.9078188971069001,-0.5092769976536883,0.185371540197088,1.8440278961603969,-1.7719446204351748,1.0278916954469022]],[[0.2467470063285995,0.029829882952229873,-0.22188413104466467,0.9011068742578486,0.5861129284442576,-0.3612340938241831,-0.3445652731436314,-0.7435486278775174,0.13975044504689949,0.11254501056289781,0.7841931321133722,-1.1680075930096003,-0.2858630209901233,0.4665822176376444,0.78468399443572,-0.6182516336693934,0.0012960942283188137,0.3305505886742375,0.8816226738329377,-0.02610783996783569,0.16171952847061383,0.11505334618152487,0.6554062360000203,0.5213779404402136,-0.6481162300064895,-0.6710110220215028,-0.09146292151035117,1.0405059402215386,0.005179536612547463,-0.48860809338116357,-0.704220468837942,-0.9596633552151363,0.2629476307724457,-0.8100548453015294,-0.9014403969029808,-0.9552965618891626,0.6571811277764098,-0.025857218350566005,0.1832445431340577,-0.5195777096998936],[-0.5285648371302105,-0.3789949193698768,-0.04097456009194147,1.1926521850673575,0.8167727510059395,-0.41527365140915895,1.23530747950008,-1.2428859602352293,-0.8050929884211513,-0.4608473502244769,0.3854485693140835,-1.3877179281670737,0.5512764530246226,-0.02948908319664412,0.1077145192251237,0.006787102252614752,0.19278306850998886,0.30741271347095867,-0.14712323523427095,-0.6186070090637654,-0.2127335708650467,0.4644189475298965,0.14044750195247696,0.43206766353242937,0.4570822492548323,-0.35702605730139303,1.2349794491387422,1.1930774109962035,-2.102859383727631,-0.0034674195323133586,-0.13365332077280392,-0.7344349954804908,-0.12522487837985796,0.004741641625789797,0.8850590464075786,-0.3399775278402463,0.553916730411592,-1.8976054843331118,1.1276052833220036,0.9269950281410129],[0.47203771085673046,-0.8311466265018485,1.3055288413924628,0.20462770978432296,1.4383742548280802,0.4656525157150962,0.32870796479852943,-1.5395489921444507,-0.20872318225175843,-0.8841861183478593,-0.31838370697582913,-0.11025669960914981,-0.28343398251270163,-0.41246211900086394,-0.45361692446542917,0.39491216184619726,0.29934673654035504,0.04733806467413999,0.07491675122820782,-0.035364763281077016,-1.4116922846017692,0.7610371516891368,1.3690081138810053,-0.9433956729269785,0.4741445618589494,-0.928431716611637,0.5694719913638657,-0.2190771760355703,0.5528836466040491,-0.1209888617239676,-0.6979555109986427,-1.3716244387222993,-0.7024250174702616,-0.16896234084625394,0.2653632712463261,-0.8097652551938161,0.01515051248036621,-0.7933825541254829,-0.6252442769715265,0.18054403005675107],[0.39024164494096225,-0.4976724478189759,0.3627480213897005,-0.09862574196113306,0.09587190863762797,-1.038528863597701,-0.3544059655757448,-1.226762862321878,0.21832840679069565,0.13355782104328504,0.609463210813119,0.3489366108874867,-0.43675464251129864,-0.8193165750701797,-0.05127351390514465,-0.7169637698067253,0.5376817243710588,-1.190286517059885,-0.9306997306250571,-0.562294471707597,-1.2123130103448567,-0.9730039919324528,-0.642080565377891,0.2685089173883527,-0.5744556223752596,-0.12411996250058245,0.7406089834199177,-0.41722023373874456,-0.5719815481215237,0.18672714502048762,-1.1251161309882232,-0.8773100936717373,0.11184428201511926,0.07477732648169319,-0.5923996490317653,0.9341061762456239,0.04182104541692641,-0.5439927257621919,-0.8911950392914231,-0.862649169586692],[1.0296389286240473,0.21183570148066885,-0.45428792251283395,0.12213042408726413,-0.3712832214822565,0.3033830274877747,0.1825068494785711,0.9785500168039363,-0.80285090934486,0.8299052908918323,0.10211758388429885,0.62026984854429,0.05193783112515984,-0.7984624277198225,0.2201633187736578,0.15749051373577314,0.05725983231900027,0.849661514640797,-0.6475751955933735,0.603381202761856,-0.6662854531616075,-0.5649086206011126,-1.3695134864460727,-0.6202223544074895,-0.12974507141625422,-0.8533679904280164,-1.2483744013054965,-0.20805864341032487,0.3224826724684887,1.4169398572029004,0.652897045198922,0.7988415929241718,0.6336336349801912,0.11738591189608931,-1.7049334136197725,0.5402447762802367,0.17160844860464664,0.27400388360195205,-0.841739842930834,0.23593259913384154],[1.7584363878679456,-1.2972324423149646,-2.5710843788700353,-2.6154083567557276,-3.505071538589213,-0.3188017427354593,-1.2190019199708884,3.751932147754172,-0.5567147390200796,1.758168911383978,0.4631423253614824,2.350202800598589,0.09608336118059463,0.5529683621744111,-0.5340853194155512,-0.35769099630322904,0.1449069872937879,-0.4227834087508769,-0.7688268385258982,-0.255784226934817,1.0328038423582284,-1.3240440215874327,-3.224453840962974,-1.385302151368475,-1.1603288560898373,0.21040403935718952,-2.4777749936121256,-1.885348636153773,2.9239562442294837,1.4939401529388772,1.8181992595613419,3.30050096564688,-1.0211100584072794,2.0685282999669345,-2.0126518027389597,-0.9741179634433386,-0.08177369528593972,0.6588478720065194,-1.2574023750246441,-1.36071926341859],[1.7161321877976055,0.2755660600993333,-2.4206679851608452,-1.51263096661067,-2.3590131396326703,-0.5313368311061901,-1.3336719626764775,2.2456487074940488,-0.5218588567110902,1.256193572853079,0.895736165133173,1.3560653902559057,-0.004114334979567393,0.5313075820656024,0.259457412413353,-0.4288132939766861,0.6744972923482228,-0.3599109923814049,-0.988719133558767,0.7362700814346593,1.2421811491309678,-1.211628148670114,-2.1911298133466888,0.15937185536729773,-0.28481164764623296,-0.8474155523263929,-0.6468767733478635,-1.7450463920741766,1.944506352730917,1.849104609305059,1.6889468312653577,2.370707518447346,-0.7680736618267264,2.151701441671749,-1.0687227090223748,-0.49354348330579445,0.6640748225916494,-0.8019231364023099,-1.331606979534765,0.18880976823336643],[-0.7929842317721094,0.8027712035743952,2.198674495520457,1.404071581159364,1.5578738336496687,1.0155033995478677,0.33271734072698267,-2.4802809296058395,-0.45747839274256563,-1.3234069843482696,-0.39936508687776523,-2.2795343086482456,-0.19461271255506507,0.3753979100471035,0.8376634412932276,0.3273318101999055,-0.4423887367232698,-0.6225562717509718,-0.04963368267316433,1.3137490910780858,-1.5870858561249053,0.6342967678893193,1.5353838573717744,0.20145697773254756,0.17974041330418183,0.11559250208702793,1.9768236216055504,1.8536369767466176,-1.5828592429933377,-0.08478250661396584,-1.409409771971672,-2.5070545371834267,0.896792416518436,-1.2420910903887594,0.6285913062303453,-0.4089279914395987,-0.08718019395281193,-0.9660736289735531,0.3622764368381582,1.29460661744804],[0.5213128430513716,0.5623020505246784,0.5258393234712802,1.412239576538037,0.8014053560279335,-0.8079473707478101,0.4731063857669445,-1.8682656621033835,0.9276727906854338,0.235277758262262,0.05263409710236119,-1.4987152375933255,0.6963228111492774,0.6231869450129063,-0.01754763646157897,0.03484818764049296,-0.8754242942275008,0.3079353255733339,-0.5900461210110306,0.10011985195706807,-1.7398845772049223,1.3268268180965241,1.2171913036984632,0.9771868667097063,0.8359274518085119,0.2802697043013308,0.5278888300559259,0.6239283135550179,-0.7737310947809166,-1.9068850373897421,-1.1199628723877393,-1.9920412738956002,0.5107274262795952,-1.3248048064828162,-0.28632000356740395,-0.21981916855517808,-0.3583557160559146,0.7680185978005214,1.262137562982754,1.000376363016328],[-0.6540824036976632,0.4652497824983635,0.9945511857103246,-0.7350517514388353,-0.1409077388250414,0.6310994276180362,0.006737086448053859,-0.32563196628238705,0.08849931300333479,-0.8655764342527541,0.4937099730372007,0.4337913769993801,0.43306377991165856,-0.055671218115011786,-0.5792226909818664,-0.440455558528194,0.07619050126519868,-0.5306855914012082,-0.43208593434724024,0.4392677000874135,0.46499634744384777,-0.933326189246371,-1.521901052580016,0.6767064650679379,-0.7624311601608842,0.6584508733233292,-0.8460167195343095,0.561993303916286,0.5417257276805457,0.9336922798454508,0.0702804550101304,-0.3554069021986557,0.42376974709828585,1.015702734230259,-0.43383087885279953,-0.37749810091862246,-0.8368361167055496,0.5800783193810335,-0.8835842651309164,0.8676090436191756],[-0.08774199090548837,-0.774655532905738,-0.3158474427729048,0.9709705027312482,0.7802348012742744,-0.3246859774524737,-0.42677825947969594,-0.3550970090032637,0.13535298003503132,-0.2625105313166432,-0.519562341949204,-0.4667165359551639,0.03286252063460808,0.271427158499303,-0.9664949744621585,-0.9939092036403693,-0.6956224687365782,-0.28671041332739106,0.8744251967520685,-0.971653457149598,-0.7940413894967543,0.9968744726237565,1.3367366860486751,0.1438908002115966,-0.028010394195953275,0.5724777636719041,-0.21126082216844597,-0.7914710204405613,-0.5197741390556201,-0.8940584133025458,-0.5730882910978738,-1.5010019946699176,-0.7314023743759386,-1.1506019930015716,-0.6251530144483072,-0.26722401827407555,-0.2745721303640493,0.28941559984427645,0.1992018991479481,0.13073382502485992],[0.5923605874910506,0.6553208742496076,-0.4939744222190317,-0.7840779166821434,-0.9112021376238315,1.2403319321192994,0.8866453562591413,0.979593560551668,0.004428542154256443,-0.17998353028706288,-0.7534687549424594,1.192095541640736,-0.440161008272658,0.5040987473682016,0.24377003452406404,0.17580228795290995,-0.7995434748058029,-0.0024321386979001738,0.2843932632165035,-0.5130042235168885,0.6328301512977067,-0.42403312669561516,-0.5346238586552828,-0.20096748713499096,-0.17026903717492925,1.0893545144618306,0.6424239203052483,-0.6651314101164401,0.9629434979106741,1.3396917036177487,0.3309379512986459,0.7528061998110208,-0.8105198083738077,0.9530390657458657,-0.5974693044982236,-0.6007507592956864,-0.10875459501893082,-0.49118721369570595,0.20691176225633423,0.29744602867909675],[0.02245595675622411,-0.0886649307559142,0.9149075440130032,1.5316426805965853,0.6613201142756546,-0.8277430079045314,0.5821330876362757,-1.853151472167334,0.17036581496472836,-0.5944190651148742,-0.32151889191923794,-1.805423808975228,0.7866586160026109,0.7448622399379727,0.5858865799576289,0.22772031456842629,-0.6903299507390264,0.7313128162390871,-0.6209048016624337,0.8833207799751647,-0.5082157750650824,1.096482727854153,1.4340302456958134,-0.6171349525322836,1.0953900089023119,0.4139954510770796,1.7350748216607828,1.417552298283319,-1.08667996373109,-0.8026753971293294,-0.1949805522141551,-1.9309135322398496,-0.609686155671268,-0.8866332736980927,-0.4041038504243704,0.6805564578278752,-0.3708192430665004,-1.6262481894288574,1.1956745417965655,-0.2942772315675495],[-0.4374062839017087,0.4979828225350179,0.6277990256979327,0.7576419720992795,1.0993770986814333,0.8729953622887774,0.25668554311299313,-0.821369793292997,0.7576449805133878,-1.697894766577746,0.05282945934068064,-0.23993506708287765,0.6060054445130847,-0.6870719970374611,-0.5114694200612697,0.5960553485434682,0.5893233594286542,0.8601647346097245,0.12667376613437836,0.9631991276290488,-1.1836161991019942,0.36013497791237065,1.6434383930584595,-0.5983169990884726,-0.61657165757979,-0.1866751246286844,1.7459709356029185,0.42680710199870464,-1.2312781823584158,1.3667179656410424,-1.3447607551641918,-1.1989539784707448,-1.0112246065031791,0.05366222257975351,1.6447550082847548,-0.6646400908713196,-0.12473378456432217,-1.55485890875846,-0.06611171229988325,0.08710727016697126],[-0.5923443460590815,0.28332395127275906,1.6921397551426596,0.8529432237086604,2.2037403044848984,1.0257252952218525,0.9470914402001571,-1.7098895741013174,0.554971674473636,-1.1596531895476538,0.7808213119424255,-1.5606169971881432,-0.2831594042798967,0.5777415835220624,0.34431055578851827,0.5376046252145239,0.9449101688495056,0.46480629409075985,-0.22027585436726468,0.08084804816365677,0.5116521676832898,0.7667036238184844,2.0830878606857812,0.6427902016127658,0.6210376926868207,-0.1082269026424692,2.3406078521461584,2.184901270127426,-1.6756826074696474,-2.5625395170500136,0.3560123753863451,-1.4500810524241232,0.3618173957964727,-1.089307115530877,1.7623440972518032,0.9447821911087021,0.2905632173467966,-1.9712630574195393,-0.4112347734969402,-0.48939784271836145],[0.3068510782530971,-0.8233862302845542,-0.7297782677980817,-1.1094499630160553,-0.2777877344127168,0.215185287206205,0.7798834970221917,0.7175997559719257,-0.4938235852926765,-0.18300496409988964,-0.30260979066877286,0.6336990041688482,-0.8223744169416483,-0.18969753724595187,0.16498934540315102,-0.30621101270326867,0.779163348033742,-0.21591963909183143,-0.32239283043645905,0.1865195362844007,0.20921046726133197,-0.27109885490818353,-1.348918594520317,0.5130702505132513,-0.7388759889634016,-0.6030963401812778,-1.200155576859538,0.27293057658194747,0.9748372062924058,1.1481903849798187,-0.4311650695199864,0.7291311855022456,-0.11205135650444023,1.6299037409412653,0.01130950344058301,-0.7138192648886366,-0.22330947083946895,0.014625756722670583,-0.9966594172611248,-0.3052481403957429],[-0.1233805419573875,0.3495255789361641,0.012203263571111669,0.8051684616299006,0.5065805117002513,-0.033795142865403964,-0.5935987173243213,-0.8733916701183603,0.4244073062464308,0.6855448453853507,0.11536496499826815,-0.4910753700128681,-0.15829598291737573,0.9554077649234557,0.4108995512721927,0.9839458349779368,0.0975097754904948,-1.0193771332547434,-0.19813592686214318,-0.3767585898348864,0.08489793334730071,-0.7856297527504598,0.5509857232437543,-0.2803509330502079,0.23575014267388875,-1.0726232428709954,-0.5687086661452138,0.6781405423979029,-0.8595492780158971,-0.2696348797748587,-0.12475162807782914,-0.06612795898023183,0.3172584779489009,-1.0809199169882264,0.7399723135874456,0.5779222455404938,-0.3342899114775183,-1.3626865057700965,0.9553841477278607,-0.6143939128597108],[1.1760785305618324,-0.09345516812072271,-0.07214066921225046,0.481079223179373,-0.3596588161711578,-0.07482667961919309,-0.4865195408460706,0.5492980190677555,0.009745651257997824,0.19107889100336453,-0.5741368271274495,0.14106978137757512,0.43501322328819125,0.1349177875616883,0.5524212440754237,-0.6470558687323277,0.9180391826114092,-0.4285600292666393,0.9185052119923717,0.4038465753084047,-0.36259123194351317,-1.020188375446611,-0.8891957295060715,-0.4999519034382486,1.0096202384577626,0.5128315082607037,0.14686204229846042,-1.0364384695769453,1.405069169864714,-0.7386896670739356,0.07087871077414973,0.10614539100328162,-0.781339191205019,0.3160221301104925,-0.07600257406204432,-0.7701077073633095,0.03102694149579847,1.4465296377140584,0.6900604121451623,1.004407644032027],[1.1196513980162848,0.9443014512609583,0.03672024357231689,0.33572848153800516,1.023707580446954,0.14164608589678968,0.48447717713206806,0.2775082066691733,0.2503310101970145,-0.3852117074790946,-0.2883225971545557,-0.6874010870915902,0.12182048478988423,-0.37510797059622475,0.6434521110854882,-0.41876205857168736,-0.30687440815628403,-0.6752550296487422,-0.21380795580815523,0.25185383692575825,-0.5421516289654952,0.2581057077893829,-0.16190702348310304,-0.7107065645758992,0.1785811566414001,1.0049955177182912,0.005052275582998429,1.0730167752840083,-0.5637651493960576,1.3889606039279658,-0.3156627712089556,-0.57775759323406,0.16207846140319407,0.9361010809870282,0.41965821363220485,0.12162045726156641,0.7878279497214077,0.10942137362663976,-0.6654378872657732,0.6272957164199996],[-1.5373507242550701,0.28195228908229003,1.1693349622418734,0.7262580512788739,1.698712036718473,0.5093069410588875,1.2516901986257354,-2.4731818911997423,-0.016828517947661686,-0.9656555177608254,0.752766082544716,-1.5812940640183049,0.5991119483662838,0.8053650936052466,-0.9448901813500566,0.8240525462494509,-0.1411307927050657,-0.8086297367428326,0.8502254217126454,-0.3774122063342015,-0.13690710101856673,1.398299372207833,2.09009723357117,0.2332568644500527,-0.4117553354694646,0.4869127813401615,2.02776860058178,1.7207720965003266,-2.339280462394228,-0.20152874726208928,-1.175670289723114,-2.5079201727778244,-0.19454359397508306,-1.3074409177575712,1.8219941562623105,0.010965393376424914,1.1850983284265104,-1.522877725907321,0.8668972907556604,1.0917114597967355],[-0.18520112597734578,-0.6158370542651566,-0.7967521622651071,-0.1332098071200424,0.4826220899228489,0.06294302790915034,-0.25264078712988375,0.1587819193964698,0.5165100047628294,0.12525480448376983,-0.5192887399529739,0.5445560865370047,-0.4462051149528708,0.7325949454098616,-0.9863885864925294,-1.0444493300487343,-0.3091369704171596,-0.6267895203860117,-0.5219377059269528,0.7262799563409452,-0.9080254366653413,-0.6994616928006129,0.6862985337258799,-0.4279763798433896,-0.3364452708807232,-0.6638848949925483,1.1221423033217586,-0.5874506468903181,-0.2944496740788666,-1.2891141826312376,0.05082043742842506,0.24079633156779406,-0.9537895172693375,0.4471609730974444,-0.8607398410113068,-0.1484911511345897,-0.08641852785319189,-0.9232881061678604,0.5317975608209629,-0.5633094661481899],[-0.8448039153516753,0.25859735296742004,-0.48196621496439834,0.8536223195103454,-0.7368275055329658,-0.6770425168330182,0.6558646755562395,-0.17937706033858278,-0.9101485168363914,-0.6898275168586935,-0.4027915596547193,-0.3747027289378261,-0.7960614249076101,-0.9236023319682355,-0.8427865935757468,0.686892808290237,0.4390035542539669,-0.5154454181420217,-0.45543085104343745,-0.6571208100924584,0.8011246461676793,-0.24175291833824875,0.24816603180757865,-0.8254893486515728,-0.2068867516311543,0.20324902018591878,-0.56024387003872,-0.7327833504882936,-0.34504882993206426,-0.5277998517141347,-0.6153051791482625,-0.6953901956795059,0.002304836554420013,-0.5544295998978729,0.012831851413418402,-0.2969051615939021,0.4655140966047711,0.8172634647377021,0.8890023532756424,0.15721332025500978],[1.1552882826342117,-0.35717699172887496,0.9620030310802223,-0.7826307018437013,0.9322937151243788,-0.6007883622589546,-0.23317130475575273,-0.2944068043517781,-0.04498878513878655,0.7974872659909232,0.8213897640884478,0.0827548109563932,0.7761314229699541,-0.12904569315999231,-0.1422541432048957,-0.048101704920625835,0.16084752927362211,0.2822306265798047,0.33514252053460153,-0.37682907600470206,-0.38161724403433744,0.030465068258689294,-0.3439515324804796,0.21397255716570818,1.0004848228532088,0.7873105367619497,0.9133363441560163,-0.7587032695486338,0.09205439902468618,-0.14432701814292845,0.037762951448858585,0.11369031086715685,-0.8074407611037234,1.0155880018799786,0.5172048111575387,-0.866260248348992,0.5996766462041618,-0.16597003697099344,-0.9500730694119871,0.12852782027995174],[-0.20817250131161028,-0.29476923861851756,0.0842221937157035,-0.41635960333415195,-0.7563834486554396,-0.19888002358741544,0.8252447920972207,1.0734113322030305,-0.24762254206075765,-0.13072641648899863,0.36352063199268697,0.6192548419310192,0.13030487378036748,0.6775509820667045,0.02125148750339665,0.8938238903847023,0.34941197516891886,0.25747241296150064,-0.6394064543857568,0.48673231341040524,0.36146866160784075,-0.09611506521215346,-0.768297269732238,0.1408194003197281,0.3794421705199141,-0.2955482647520209,0.6134177651889683,-0.8453547197457799,0.6118167338909737,1.24911355433178,-0.8190464062940251,0.10305607770366981,-0.6208703887123265,1.354176033520528,0.19837646390847202,-0.1552126918844174,-0.06271746218291192,-0.4603922554051847,0.6563293921419621,0.2524745046529946],[-1.5536381923446092,-0.4647609528380356,0.5284018849527591,-0.6020151805910164,1.4153529803987983,0.502665024205219,-0.6233301032326373,-0.5739702878945127,-1.0523427287249003,-0.4977935788059967,0.6235252889837332,0.22852957289878453,-0.04524831424147645,0.5729981176336644,-0.7750080106339508,-0.8117528219782004,-0.31073892179043805,-0.5707610027527847,0.3432776077527856,0.2892533055401383,-0.5119292298462869,0.7591349390389142,0.3930685979933222,-1.0061209437615333,-0.20816060823917884,-0.29260593233699544,-0.04839073231056285,0.03356835704264726,-0.8990587933897441,-1.10194742494652,-0.18291203301792558,-0.4010215630171822,-0.8181937240728564,-1.469435868443404,-0.34042473939346046,0.17417111686792994,-0.3505782531686367,0.41376333207791993,-0.05515926629250127,0.9140041717100092],[0.5914324778998877,-0.6091195566067438,-0.9116129831208145,-0.9300993576422939,-0.66576628409118,0.8270015355052682,-1.0125511015781972,1.5806623408294946,0.2717820953941103,1.2300057953714694,-0.1495837745276601,0.7466988138968977,0.392454697233724,-0.24588509927667387,-0.8516836056116145,-0.8988236028762578,-0.009459570347642438,1.070308846305357,0.2880586171648277,-0.9404979869286642,1.081053156343387,0.06018777305683651,-0.6975998457040616,0.9288034665895699,0.1736808054712673,-0.6741065255945834,-0.3424917975293093,-1.3434394773754776,1.0795178187859433,-0.037695224813948595,1.0547438973273728,0.7728173271740588,0.6601411492944823,-0.6773237667250824,0.14689376810722396,-0.6818799702825548,0.5295850758614963,0.6597424170513745,-0.9355494336454641,-1.0019397817462494],[-1.8047337842515108,0.23576210587673482,2.9137418412762557,2.46128161464585,3.0214301281188627,0.5118544666324093,1.479661723951243,-4.4610007832185925,0.6493657334905207,-2.4610924015710727,-0.30355930335188613,-2.9438324427188727,0.8941945392768594,0.19723285069398006,0.4123493824329921,1.100949479085342,0.8721904587632878,-0.1878784546711643,0.8949760801774905,1.2691861940041989,-2.1540639387156277,-0.6344123359025472,2.299203453332261,0.6431279673749966,-0.24944079407849457,-0.9431754183987633,2.2081961011263833,2.808635375210586,-4.061625491137129,2.228232718339184,-2.4524547215888544,-3.8337155894313337,0.3361185787627386,-2.5499000504333846,2.4409647374332573,-0.007948794398114198,0.40518106692630446,-2.628022417988141,1.8389527843118028,1.3591659569441525],[-0.03825904385771288,0.34772703628471074,-0.10724453252209297,0.29493160942077,0.3065156020113569,-0.5737599450185576,1.0748094434050726,0.16734036102664665,-0.77013070004504,0.23101702139674948,-0.22328741719531148,1.2711846017410096,0.11839679222421964,0.4556169898885068,-0.5280375352781661,0.03977262619147018,-0.6558189710691444,-0.11274188465282135,-0.6376239511838344,0.5374570949926789,-0.4181106044594029,-0.2508673735094388,0.501476132091426,0.8199750988356534,0.028060541011966637,0.8642636751132952,-0.8731502232019606,0.6043367659055893,0.1896900344946638,0.9865117184740438,-1.0377914010469749,1.1533016680712465,0.9612553750650804,1.6429467036751015,-0.760927919815009,0.3964604104383246,0.9215186894955057,1.1485548926890412,-0.9609985268449596,-0.2415489985832062],[-2.2234762448078746,1.0543135273304167,3.368096399526371,3.032696796677928,4.111933676362468,0.6154968382866647,1.0395375815372239,-4.887210984443077,0.888202453662898,-2.357934661978717,0.08213512916886982,-3.314560234769082,-0.2686640102646009,-0.5551458411638887,0.7266812225407984,0.27788337626726334,0.1656756982033022,0.9038738307451745,-0.2442745685457174,0.7173958238496901,-1.332517124258291,1.1708875964868757,3.5961313143633413,0.33726963916777547,0.2986367056160967,-0.20169036657869258,3.7282368855708525,2.836340368211483,-3.688245445975101,-1.443214619515956,-2.2018962877957877,-4.441055772806747,1.1477408524783654,-2.6731806953322046,2.580436880099545,0.9663913289377234,0.4806855997360236,-2.0619340623669147,2.1581678647601383,1.3618679524350925],[-0.09638370057535112,0.6147593677987927,-1.0708997307661392,-0.17625865495406381,0.29849253970748113,0.7861315267815479,-1.0958891761859364,0.3207287966884266,-0.6234282244362579,-0.299018318214067,0.6121735010156303,-0.05184443643036225,-0.3651816125054986,0.7962914084467568,-0.4948577278090584,0.7051380933581576,0.005399049105173185,0.3315229514733943,-0.09870501739195328,-0.3366547706029614,0.7124871888966369,0.05688612231398411,0.9836781313488063,0.5365936460486818,0.2865013415829278,0.23816022144557114,0.6101412461458278,-0.057134596234184806,-0.3479803473685142,-1.6422972028157272,0.9022129018365354,-0.6801910254082272,-0.4221336517062166,-1.4755338940700937,-0.8432673906998464,-0.0502918793965598,-0.8333780655013323,-0.814761532617211,0.006755587911159294,-0.816371916356649],[-0.16709833503687527,0.02328938677006683,0.7507406736034807,0.08843625746807685,-0.24154511341586868,-0.7338941881058444,-1.0615963884792858,0.2612476738675137,-1.2128368191623675,-1.4985176063783727,0.9226753980543159,-1.058124122576533,0.4444649972330976,0.642362489343368,0.5752596732851968,0.9473654089302493,-0.5632430238642465,0.24938817696301036,0.16927335852167066,-0.7557548854581065,-0.7090295947529243,0.2571049163396576,1.0170228447082794,-0.7661884405224239,-0.19955346197827273,0.5764328188758994,0.28743322852444286,0.8055836912556238,-0.18143200756485828,0.047656829192523675,0.4011364574922471,-0.677268862483446,0.21207328827910948,-0.46704636574296055,0.5352319063844743,0.8231679716851394,-0.4911656650461602,-0.3849971166209944,0.19157013559732688,-0.9423668404724799],[-0.695611798773574,0.3430171420434714,1.3556605970806266,0.5807945267409791,2.3585112809465394,0.33464230232900866,-0.5880965685752702,-1.6146317369375525,0.02262724800177509,-1.0758506365893645,0.7861369181555748,-1.730326575937943,-0.45547802862840225,0.07202897197911093,0.6968203939790392,-0.6206543518055305,0.050706660118370286,-0.1626551745304576,0.7638313373426592,0.42634823566691676,0.24520153356308405,1.4687916127378984,0.34141939750541533,0.9984637094518654,0.37561651792465056,0.11184976333421091,0.9402547790930443,0.8437313524857293,-0.9637591924096313,-1.6374965578191385,-1.405172733924836,-1.939579915511745,0.4046489490185957,-0.9256296653974254,1.3319148846190965,-0.7926153009208436,-0.4819986586240381,-0.99091405762941,1.1302364146989268,-0.08391043522356507],[-1.636896160178659,0.3391905875883607,2.6480246860283474,1.8715784612042021,2.779245957082011,-0.44387631871580413,0.055738688273214126,-2.5021709592071764,-0.33659391459901006,-2.0594670435300477,0.9884076366958653,-2.1754909491091308,-0.2845936259026998,0.726310208749823,0.13498667534929426,0.4333696586140803,0.964135230532521,1.4773211963200716,-0.26432998385756634,0.919044748435079,-0.48908400621721376,0.7549644745781184,2.1125991614389954,0.5529368552150014,-0.2757653388879582,0.551562752932054,2.1115884759786585,2.296264683526915,-2.194056922354084,-1.9135359546749053,-1.222689027825496,-2.5824214612319434,0.025331180244635525,-1.5534680280044828,1.8994363454772905,0.43251421082484426,1.046114925184428,-0.5834317708717494,1.3001396226538855,0.6954822557020771],[-0.8668738433646004,0.03221836116515396,-0.23449644808861528,-0.2879532059553739,0.5935503243213788,-0.6308846263854406,-0.8539791710933724,-1.1016009058363048,-0.2818672948996208,5.374986616446063E-4,-0.36223560085729906,0.5069441539540712,-0.5451430572016198,0.5041520659400632,-1.0033863606295077,-0.6239525599826506,0.6530340253563142,-0.9353289313150557,0.6201747145097972,0.33102442569009854,0.035818305191357196,-0.816663786408774,-0.9339922257758406,-0.949681273371378,-0.5651527732492114,0.03280262523649591,0.9963215714600074,-0.8959196646188895,-0.003012698957167372,-0.3616826272454806,-1.2817584105005173,-0.2881555541379005,-0.2023516969738485,0.7536220262600382,-0.9028138762120528,0.5415606959025547,0.5892808981108223,-0.49022551870862596,-0.55427145955767,0.7717076486526975],[-0.9092084691640544,-0.7522962214606345,-0.8516046760067625,-0.22912253793796425,-0.7838850049120673,-0.541108995778726,-0.48406220241282844,-0.02979943734744803,-0.5344267436814019,0.7105949320340588,0.2834864105993555,1.0687789301437565,1.0039206898208355,-0.2065724379246465,0.7091853026741877,0.8270909363470844,0.790505778848436,0.06284680660318877,-0.7534781219856546,0.804767199762135,-0.8077419747595862,-0.5368735523312632,-0.9777554115580954,0.13784038706466506,0.6184392762480923,0.6465331702548175,-0.23661382147169724,-0.6346356804817519,-0.595896638381032,0.706354899142899,-0.4069738151831771,1.5980507969810913,-0.1150506798821504,0.6334606887607499,0.2391965350545875,0.05209599433376968,0.9406727630240305,1.6272837389866444,0.674266859659189,-0.6086361199026156],[-0.4034314106461777,-0.29408257095163104,0.008584027641518418,0.3956447686078868,0.298003928455101,-1.0426087386148826,0.5072798179972657,-0.5834165376825627,0.4730365620236923,-0.698160459346829,-0.7724712133145863,0.3978159139135774,-0.1567874896872047,0.4398496329079743,0.8573470573217357,-0.7784423259891924,0.39269099121067574,-0.563514736669818,-0.30347839325539905,-0.9109574927781515,-2.234947524082843,0.84144692488418,0.25205260014199204,-1.1391770546872335,-0.5841884438796119,-0.22715976771801166,0.972327223707215,-0.18305517507837135,-1.003784923714042,0.38700511390182385,-0.02204370976743839,-0.1188825780797342,-0.47285077009278625,-0.169086885531373,0.3718700418866538,0.7064041240821581,-0.8634017530221708,0.15862243115804722,-0.9396748880121302,-0.10665847419057649],[0.0170689321835434,0.7206283600256972,0.5037280249155579,0.7792743777684943,-0.19535228156788267,0.0032148211585632364,-0.16257917113957002,0.0966787139431941,0.9181061242655535,-0.6121113235103149,-0.38402135359109457,1.1394533197771854,0.0073389888230343155,-0.9349702538813187,0.6904775720124255,0.02000592029307485,0.0050768160099798065,-0.7934536637650351,-0.3403744266263601,0.15715898741112602,0.11222464975612689,0.4294310735364607,-0.7378831276415959,-0.6054036762754303,0.16956581202849977,0.24542867665574222,-0.11763403935915204,0.825632337238416,-0.3346613985284029,-0.6847368646417399,-0.6839308917560512,-0.6636668526521625,0.0464490490185175,-0.6531863680487471,0.27688290032372254,-0.4815780457391526,-0.2302690284675279,0.675843255825248,-0.923603664146526,-0.6970956784537187],[-0.7304541482730004,-0.6022716428828835,-0.9063405729209598,-0.2107927759172136,0.7141226417818924,-0.6398613494797839,-0.14680437641675895,1.0989009953338378,-0.06232419124855672,0.3758880901697982,0.27643991117756284,0.5235740041169279,-0.4947754994134643,0.040986421775753255,0.9708096638679005,0.04791262518202808,-0.52168896610764,-0.8416085829505738,0.2603135464903833,1.1079816934007944,0.5392020259649789,-0.0711975140557561,-0.05501975487735189,0.46395461687137485,0.7324473645764408,0.6817254836043182,0.34574970965199503,0.6969801033941797,-0.1469103326498696,-0.5876346848339098,1.0850686930389193,0.1372672644345775,-0.36415550504514616,0.013068180690123346,0.8644950676368736,-0.6155068298301475,-0.4967673187956018,0.1777931729579434,0.24487288940294488,-0.26938602263027644],[-2.0531954872366756,-0.3474214848258038,1.8922181402732565,2.145005183787252,1.7429762684749959,0.6569793673336299,1.4985335850439383,-3.10610310823349,-0.09495811956574729,-1.9621008312612818,0.4317984125574509,-2.251983421493968,0.0034904102007954235,0.48417331308623174,0.15912741878441186,-0.4763269176900149,-0.03641388823148573,-0.1600610956119234,0.43752264770466925,0.5212246644812608,-0.2643618048047975,0.07337860100132132,0.49174506430405257,0.004785194950808955,-0.9082685306595933,0.24865029781283152,2.641861387106856,2.2287895859117404,-3.4402360020582816,2.618018488002511,-1.5820221548625475,-3.032726856908497,0.016965079907432387,-1.6555769629238497,1.4035828376395483,-0.5714781981691559,0.7707936973090995,-2.364889672853647,0.6509806158052514,1.4475681767363198],[0.4960262981552512,-0.7020391433866845,-0.1884453077206722,0.7328813285222389,-0.09093183236629393,-0.9367240297546483,0.7957439983366236,0.8057011582287109,0.30633671880676516,0.31333090193827323,-0.0048255661816528255,-0.3372310153455805,0.2880463529695324,-0.09120007955790296,0.5483419385959597,-0.5127509570670776,0.24195985259781214,0.09018359942179013,-0.01056364421219337,0.29171408325982423,1.1562805149954742,-0.11423714941432551,-0.16279724398454432,0.3911249720134754,0.2675462253841099,0.5057637753529817,-0.550184572213833,-0.26809815412846716,0.8259572653515458,0.694814752437533,-0.28862806479497977,1.0364427406886099,0.5621689059850893,0.8847710027955712,-0.5122433689398316,-0.26708277363426525,-0.29534065477219784,-0.24408857198374365,0.706118718676447,0.3465389494404677]],[[0.5566216592119351,1.5910973429812094,0.9858862428415319,1.1484728655656056,-1.4878122194492285,-3.4290171095962543,-2.3806915766642938,2.002040197433553,1.7555632004420756,-0.9199819767885635,0.6169292266271974,-1.0669127627802495,1.713917326436934,1.852940247357727,2.264514532931014,-0.93069572890807,0.5895650286313745,-0.878998378939292,-0.8114231309910627,2.0761484120799696,0.8435297417268248,0.4181408576247688,-0.4167311614143646,-0.3231490532878388,0.889237236749442,-1.3569332940524212,3.701863355236797,-0.7942928483349929,4.252206007355025,0.5077215881585424,0.04619457572590374,1.8922787255638258,2.5760806812480603,0.4850560096764839,-0.8123551174945081,0.9911628779822269,0.0321804698793229,-0.4825065020347736,2.5418222525907237,-0.6801286494554681]]],"Biases":[[[-5.959050663463601],[-0.1598148157647816],[-9.140739507869617],[-2.5981141126691245],[-0.08117408502745581],[-0.8396773840577317],[-0.8427342952048613],[-0.7913519667436733],[-0.9352758810257419],[7.208084620651694],[-1.725912444680305],[4.763459677260409],[-1.2864118234611377],[-1.2090879433503487],[-0.5424167645054125],[-0.37705611753886714],[-1.8875747377313754],[-0.5868375678595633],[-1.5680678340588907],[-0.17577307520528504],[6.2824584118451785],[0.737247613335379],[1.8183681210135856],[-1.6374876235674196],[-1.678878457049895],[-0.5058945258787007],[-1.4461304744782146],[-1.7942854080199175],[3.240764638136281],[-2.7973535128990985],[-4.908041964208035],[4.116313357856689],[-1.3588497176119405],[-0.19521090611871014],[-4.413893021506903],[-1.2284142964106133],[-1.3224442856157905],[2.0457999889163836],[1.0878328008191742],[-0.9009997133608574]],[[-0.1861700257515092],[1.017462925468668],[0.4031552900900856],[0.12083035432593274],[-0.7525701417947981],[-3.738822087187999],[-2.9935785709064686],[3.4364147173929216],[2.4440421535881383],[-0.18271295729467188],[0.9806904691484333],[-1.0477234575525085],[2.423012863302975],[0.9518942418203473],[1.7634697704384745],[-0.30483315448230663],[0.4581573665276669],[0.17130688177573136],[0.6623081027625175],[2.631709761314847],[0.06297610110501954],[-0.6144886170715671],[0.665856576873171],[0.8623429086753044],[1.0326227385851332],[-0.9991438087785596],[4.710084736765587],[-1.1609625029252695],[6.101241155154533],[0.1573073309239971],[0.5491348631099707],[2.198255945712538],[3.0754987482157077],[-0.5837340053460334],[0.6687584189042187],[0.013321942202602787],[-0.7107698815071498],[0.5671874568361287],[2.078672087812688],[-1.1258133973165618]],[[0.018154152929275483]]]}}